/* Organism #31 Fitness: 1.005 Error: 0.995 */
genomestart 31
trait 1 0.149081 0.0821799 0.149285 0.107977 0.908219 0.227115 0.795648 0.003459 
node 1 1 0
node 2 1 1
node 3 1 1
node 4 1 1
node 5 1 1
node 6 1 1
node 7 1 1
node 8 1 1
node 9 1 1
node 10 1 2
node 11 1 2
node 12 1 2
node 13 1 2
node 14 1 2
node 15 1 2
node 16 1 2
node 17 1 2
node 18 1 2
node 19 1 2
node 20 1 2
node 21 1 3
node 23 1 3
node 24 1 3
node 25 1 3
node 26 1 3
node 27 1 3
node 28 1 3
gene 1 1 21 -0.566479 0 1 -0.566479 1
gene 1 1 23 -0.706424 0 3 -0.706424 1
gene 1 1 24 0.662565 0 4 0.662565 1
gene 1 1 25 0.313104 0 5 0.313104 1
gene 1 1 26 -0.0538384 0 6 -0.0538384 1
gene 1 1 27 0.922149 0 7 0.922149 1
gene 1 1 28 0.121247 0 8 0.121247 1
gene 1 2 21 0.214729 0 9 0.214729 1
gene 1 2 23 0.459136 0 11 0.459136 1
gene 1 2 24 -0.666256 0 12 -0.666256 1
gene 1 2 25 -0.435953 0 13 -0.435953 1
gene 1 2 26 0.0275521 0 14 0.0275521 1
gene 1 2 27 -0.073032 0 15 -0.073032 1
gene 1 2 28 0.755459 0 16 0.755459 1
gene 1 3 21 -0.983824 0 17 -0.983824 1
gene 1 3 23 -0.727544 0 19 -0.727544 1
gene 1 3 24 -0.452202 0 20 -0.452202 1
gene 1 3 25 -0.308325 0 21 -0.308325 1
gene 1 3 26 0.867893 0 22 0.867893 1
gene 1 3 27 0.575446 0 23 0.575446 1
gene 1 3 28 0.320256 0 24 0.320256 1
gene 1 4 21 -0.516099 0 25 -0.516099 1
gene 1 4 23 -0.491242 0 27 -0.491242 1
gene 1 4 24 -0.0269685 0 28 -0.0269685 1
gene 1 4 25 0.998815 0 29 0.998815 1
gene 1 4 26 -0.560997 0 30 -0.560997 1
gene 1 4 27 -0.817581 0 31 -0.817581 1
gene 1 4 28 0.1658 0 32 0.1658 1
gene 1 5 21 0.0164009 0 33 0.0164009 1
gene 1 5 23 -0.487972 0 35 -0.487972 1
gene 1 5 24 0.278033 0 36 0.278033 1
gene 1 5 25 -0.514799 0 37 -0.514799 1
gene 1 5 26 0.102579 0 38 0.102579 1
gene 1 5 27 0.308264 0 39 0.308264 1
gene 1 5 28 0.214719 0 40 0.214719 1
gene 1 6 21 0.946165 0 41 0.946165 1
gene 1 6 23 0.992747 0 43 0.992747 1
gene 1 6 24 0.344439 0 44 0.344439 1
gene 1 6 25 0.761204 0 45 0.761204 1
gene 1 6 26 0.999774 0 46 0.999774 1
gene 1 6 27 0.219497 0 47 0.219497 1
gene 1 6 28 0.593662 0 48 0.593662 1
gene 1 7 21 -0.140729 0 49 -0.140729 1
gene 1 7 23 0.295461 0 51 0.295461 1
gene 1 7 24 -0.499274 0 52 -0.499274 1
gene 1 7 25 0.357664 0 53 0.357664 1
gene 1 7 26 -0.676032 0 54 -0.676032 1
gene 1 7 27 0.488791 0 55 0.488791 1
gene 1 7 28 -0.0917685 0 56 -0.0917685 1
gene 1 8 21 -0.353867 0 57 -0.353867 1
gene 1 8 23 1.01699 0 59 1.01699 1
gene 1 8 24 0.342298 0 60 0.342298 1
gene 1 8 25 0.00931832 0 61 0.00931832 1
gene 1 8 26 -0.390269 0 62 -0.390269 1
gene 1 8 27 -0.562635 0 63 -0.562635 1
gene 1 8 28 0.411033 0 64 0.411033 1
gene 1 9 21 0.178454 0 65 0.178454 1
gene 1 9 23 0.338025 0 67 0.338025 1
gene 1 9 24 0.694092 0 68 0.694092 1
gene 1 9 25 0.960609 0 69 0.960609 1
gene 1 9 26 -0.793664 0 70 -0.793664 1
gene 1 9 27 -0.678954 0 71 -0.678954 1
gene 1 9 28 -0.584007 0 72 -0.584007 1
gene 1 21 10 -0.486797 0 73 -0.486797 1
gene 1 21 11 -0.946885 0 74 -0.946885 1
gene 1 21 12 -0.377567 0 75 -0.377567 1
gene 1 21 15 0.00938273 0 78 0.00938273 1
gene 1 21 16 0.0942915 0 79 0.0942915 1
gene 1 21 17 0.746392 0 80 0.746392 1
gene 1 21 18 -0.953314 0 81 -0.953314 1
gene 1 21 19 -0.529054 0 82 -0.529054 1
gene 1 21 20 0.41429 0 83 0.41429 1
gene 1 23 10 0.565712 0 95 0.565712 1
gene 1 23 11 0.640407 0 96 0.640407 1
gene 1 23 12 -0.244833 0 97 -0.244833 1
gene 1 23 13 -0.230709 0 98 -0.230709 1
gene 1 23 14 0.313007 0 99 0.313007 1
gene 1 23 15 0.474826 0 100 0.474826 1
gene 1 23 16 0.266658 0 101 0.266658 1
gene 1 23 17 -0.0698468 0 102 -0.0698468 1
gene 1 23 18 0.47344 0 103 0.47344 1
gene 1 23 19 0.209666 0 104 0.209666 1
gene 1 23 20 0.193159 0 105 0.193159 1
gene 1 24 10 -0.854898 0 106 -0.854898 1
gene 1 24 11 -0.154592 0 107 -0.154592 1
gene 1 24 12 0.648236 0 108 0.648236 1
gene 1 24 13 -0.793877 0 109 -0.793877 1
gene 1 24 14 -0.821863 0 110 -0.821863 1
gene 1 24 15 -0.982199 0 111 -0.982199 1
gene 1 24 16 -0.716413 0 112 -0.716413 1
gene 1 24 17 -0.81147 0 113 -0.81147 1
gene 1 24 18 -0.979463 0 114 -0.979463 1
gene 1 24 19 0.0312207 0 115 0.0312207 1
gene 1 24 20 0.478055 0 116 0.478055 1
gene 1 25 10 0.22883 0 117 0.22883 1
gene 1 25 11 -0.690068 0 118 -0.690068 1
gene 1 25 12 0.898763 0 119 0.898763 1
gene 1 25 13 0.199071 0 120 0.199071 1
gene 1 25 14 0.300148 0 121 0.300148 1
gene 1 25 15 0.972247 0 122 0.972247 1
gene 1 25 16 -0.776975 0 123 -0.776975 1
gene 1 25 17 0.758225 0 124 0.758225 1
gene 1 25 18 0.0883779 0 125 0.0883779 1
gene 1 25 19 0.345217 0 126 0.345217 1
gene 1 25 20 0.622824 0 127 0.622824 1
gene 1 26 10 0.318949 0 128 0.318949 1
gene 1 26 11 0.147502 0 129 0.147502 1
gene 1 26 12 0.688684 0 130 0.688684 1
gene 1 26 13 -0.505943 0 131 -0.505943 1
gene 1 26 14 -0.269205 0 132 -0.269205 1
gene 1 26 15 0.649573 0 133 0.649573 1
gene 1 26 16 0.957912 0 134 0.957912 1
gene 1 26 17 0.821035 0 135 0.821035 1
gene 1 26 18 -0.795993 0 136 -0.795993 1
gene 1 26 19 -0.522273 0 137 -0.522273 1
gene 1 26 20 0.0974876 0 138 0.0974876 1
gene 1 27 10 -0.770863 0 139 -0.770863 1
gene 1 27 11 0.656769 0 140 0.656769 1
gene 1 27 12 -0.56207 0 141 -0.56207 1
gene 1 27 13 0.887222 0 142 0.887222 1
gene 1 27 14 0.310502 0 143 0.310502 1
gene 1 27 15 -0.577667 0 144 -0.577667 1
gene 1 27 16 0.841282 0 145 0.841282 1
gene 1 27 17 -0.472839 0 146 -0.472839 1
gene 1 27 18 0.721324 0 147 0.721324 1
gene 1 27 19 0.727819 0 148 0.727819 1
gene 1 27 20 0.357276 0 149 0.357276 1
gene 1 28 10 0.470105 0 150 0.470105 1
gene 1 28 11 -0.468603 0 151 -0.468603 1
gene 1 28 12 0.841816 0 152 0.841816 1
gene 1 28 13 -0.312102 0 153 -0.312102 1
gene 1 28 14 0.0455455 0 154 0.0455455 1
gene 1 28 15 -0.144605 0 155 -0.144605 1
gene 1 28 16 -0.573431 0 156 -0.573431 1
gene 1 28 17 -0.0466109 0 157 -0.0466109 1
gene 1 28 18 -0.000240086 0 158 -0.000240086 1
gene 1 28 19 -1.07436 0 159 -1.07436 1
gene 1 28 20 -0.196246 0 160 -0.196246 1
gene 1 20 18 0.340959 0 247 0.340959 1
gene 1 6 12 -0.613921 0 314 -0.613921 1
gene 1 15 11 0.65256 0 457 0.65256 1
gene 1 4 20 -0.713797 0 1093 -0.713797 1
genomeend 31
