/* Organism #604 Fitness: 1.002 Error: 0.998 */
genomestart 604
trait 1 0.149081 0.0747968 0.128545 0.107977 0.908219 0.227115 0.795648 0 
node 1 1 0
node 2 1 1
node 3 1 1
node 4 1 1
node 5 1 1
node 6 1 1
node 7 1 1
node 8 1 1
node 9 1 1
node 10 1 2
node 11 1 2
node 12 1 2
node 13 1 2
node 14 1 2
node 15 1 2
node 16 1 2
node 17 1 2
node 18 1 2
node 19 1 2
node 20 1 2
node 21 1 3
node 22 1 3
node 23 1 3
node 24 1 3
node 25 1 3
node 26 1 3
node 27 1 3
node 28 1 3
gene 1 1 21 1.42493 0 1 1.42493 1
gene 1 1 22 -0.883814 0 2 -0.883814 1
gene 1 1 23 -1.39458 0 3 -1.39458 1
gene 1 1 24 -1.42023 0 4 -1.42023 1
gene 1 1 25 1.80687 0 5 1.80687 1
gene 1 1 26 -0.530847 0 6 -0.530847 1
gene 1 1 27 0.202538 0 7 0.202538 1
gene 1 1 28 1.46983 0 8 1.46983 1
gene 1 2 21 -0.182177 0 9 -0.182177 1
gene 1 2 22 0.334368 0 10 0.334368 1
gene 1 2 23 -0.338351 0 11 -0.338351 1
gene 1 2 24 -0.97108 0 12 -0.97108 1
gene 1 2 25 -1.89868 0 13 -1.89868 1
gene 1 2 26 0.436901 0 14 0.436901 1
gene 1 2 27 -0.59097 0 15 -0.59097 1
gene 1 2 28 1.66672 0 16 1.66672 1
gene 1 3 21 1.76468 0 17 1.76468 1
gene 1 3 22 0.871787 0 18 0.871787 1
gene 1 3 23 0.209618 0 19 0.209618 1
gene 1 3 24 1.51302 0 20 1.51302 1
gene 1 3 25 0.965656 0 21 0.965656 1
gene 1 3 26 0.0968519 0 22 0.0968519 1
gene 1 3 27 1.69857 0 23 1.69857 1
gene 1 3 28 -1.13021 0 24 -1.13021 1
gene 1 4 21 -1.56864 0 25 -1.56864 1
gene 1 4 22 0.150171 0 26 0.150171 1
gene 1 4 23 0.678631 0 27 0.678631 1
gene 1 4 24 -1.49357 0 28 -1.49357 1
gene 1 4 25 -1.28063 0 29 -1.28063 1
gene 1 4 26 -1.3593 0 30 -1.3593 1
gene 1 4 27 -0.273634 0 31 -0.273634 1
gene 1 4 28 -1.31365 0 32 -1.31365 1
gene 1 5 21 0.41597 0 33 0.41597 1
gene 1 5 22 1.22945 0 34 1.22945 1
gene 1 5 23 1.36982 0 35 1.36982 1
gene 1 5 24 0.749517 0 36 0.749517 1
gene 1 5 25 0.640714 0 37 0.640714 1
gene 1 5 26 0.382538 0 38 0.382538 1
gene 1 5 27 -1.70766 0 39 -1.70766 1
gene 1 5 28 -1.8031 0 40 -1.8031 1
gene 1 6 21 0.904399 0 41 0.904399 1
gene 1 6 22 -0.266595 0 42 -0.266595 1
gene 1 6 23 -1.64701 0 43 -1.64701 1
gene 1 6 24 -0.756034 0 44 -0.756034 1
gene 1 6 25 0.749549 0 45 0.749549 1
gene 1 6 26 -0.231081 0 46 -0.231081 1
gene 1 6 27 0.779917 0 47 0.779917 1
gene 1 6 28 -0.454089 0 48 -0.454089 1
gene 1 7 21 -0.620619 0 49 -0.620619 1
gene 1 7 22 1.4856 0 50 1.4856 1
gene 1 7 23 0.820266 0 51 0.820266 1
gene 1 7 24 -1.46696 0 52 -1.46696 1
gene 1 7 25 -1.57282 0 53 -1.57282 1
gene 1 7 26 0.990378 0 54 0.990378 1
gene 1 7 27 -1.28045 0 55 -1.28045 1
gene 1 7 28 -0.0272244 0 56 -0.0272244 1
gene 1 8 21 -0.430615 0 57 -0.430615 1
gene 1 8 22 0.177802 0 58 0.177802 1
gene 1 8 23 -1.20715 0 59 -1.20715 1
gene 1 8 24 -0.731935 0 60 -0.731935 1
gene 1 8 25 -1.06928 0 61 -1.06928 1
gene 1 8 26 1.33957 0 62 1.33957 1
gene 1 8 27 -0.47227 0 63 -0.47227 1
gene 1 8 28 -0.318367 0 64 -0.318367 1
gene 1 9 21 -0.0452584 0 65 -0.0452584 1
gene 1 9 22 -1.19342 0 66 -1.19342 1
gene 1 9 23 -1.19667 0 67 -1.19667 1
gene 1 9 24 1.98662 0 68 1.98662 1
gene 1 9 25 0.526794 0 69 0.526794 1
gene 1 9 26 0.561966 0 70 0.561966 1
gene 1 9 27 2.34239 0 71 2.34239 1
gene 1 9 28 1.25043 0 72 1.25043 1
gene 1 21 10 -0.323103 0 73 -0.323103 1
gene 1 21 11 -1.04695 0 74 -1.04695 1
gene 1 21 12 -0.853033 0 75 -0.853033 1
gene 1 21 13 -1.93333 0 76 -1.93333 1
gene 1 21 14 0.777413 0 77 0.777413 1
gene 1 21 15 1.33757 0 78 1.33757 1
gene 1 21 16 0.711872 0 79 0.711872 1
gene 1 21 17 0.992707 0 80 0.992707 1
gene 1 21 18 1.22477 0 81 1.22477 1
gene 1 21 19 0.543222 0 82 0.543222 1
gene 1 21 20 -0.359199 0 83 -0.359199 1
gene 1 22 10 2.02083 0 84 2.02083 1
gene 1 22 11 -0.529063 0 85 -0.529063 1
gene 1 22 12 0.0467014 0 86 0.0467014 1
gene 1 22 13 -0.145541 0 87 -0.145541 1
gene 1 22 14 -1.0246 0 88 -1.0246 1
gene 1 22 15 1.76757 0 89 1.76757 1
gene 1 22 16 -2.36277 0 90 -2.36277 1
gene 1 22 17 1.82753 0 91 1.82753 1
gene 1 22 18 -0.889283 0 92 -0.889283 1
gene 1 22 19 -0.507961 0 93 -0.507961 1
gene 1 22 20 -0.356379 0 94 -0.356379 1
gene 1 23 10 0.688903 0 95 0.688903 1
gene 1 23 11 -0.402112 0 96 -0.402112 1
gene 1 23 12 -1.39139 0 97 -1.39139 1
gene 1 23 13 0.162569 0 98 0.162569 1
gene 1 23 14 0.13563 0 99 0.13563 1
gene 1 23 15 -0.818007 0 100 -0.818007 1
gene 1 23 16 -1.73677 0 101 -1.73677 1
gene 1 23 17 -0.907003 0 102 -0.907003 1
gene 1 23 18 -1.15423 0 103 -1.15423 1
gene 1 23 19 -0.00815795 0 104 -0.00815795 1
gene 1 23 20 -0.577425 0 105 -0.577425 1
gene 1 24 10 -0.280922 0 106 -0.280922 1
gene 1 24 11 -0.726189 0 107 -0.726189 1
gene 1 24 12 -1.55071 0 108 -1.55071 1
gene 1 24 13 -1.88335 0 109 -1.88335 1
gene 1 24 14 -1.14988 0 110 -1.14988 1
gene 1 24 15 1.86997 0 111 1.86997 1
gene 1 24 16 -0.886998 0 112 -0.886998 1
gene 1 24 17 -1.1671 0 113 -1.1671 1
gene 1 24 18 1.33229 0 114 1.33229 1
gene 1 24 19 0.750366 0 115 0.750366 1
gene 1 24 20 0.650257 0 116 0.650257 1
gene 1 25 10 1.5976 0 117 1.5976 1
gene 1 25 11 -0.308821 0 118 -0.308821 1
gene 1 25 12 0.950441 0 119 0.950441 1
gene 1 25 13 -0.364063 0 120 -0.364063 1
gene 1 25 14 0.614829 0 121 0.614829 1
gene 1 25 15 0.532353 0 122 0.532353 1
gene 1 25 16 -1.56412 0 123 -1.56412 1
gene 1 25 17 1.17322 0 124 1.17322 1
gene 1 25 18 0.77223 0 125 0.77223 1
gene 1 25 19 -0.353542 0 126 -0.353542 1
gene 1 25 20 0.0664245 0 127 0.0664245 1
gene 1 26 10 0.51398 0 128 0.51398 1
gene 1 26 11 0.91048 0 129 0.91048 1
gene 1 26 12 0.766244 0 130 0.766244 1
gene 1 26 13 -1.31744 0 131 -1.31744 1
gene 1 26 14 0.984727 0 132 0.984727 1
gene 1 26 15 0.285721 0 133 0.285721 1
gene 1 26 16 0.803988 0 134 0.803988 1
gene 1 26 17 0.963164 0 135 0.963164 1
gene 1 26 18 0.903131 0 136 0.903131 1
gene 1 26 19 2.34571 0 137 2.34571 1
gene 1 26 20 -0.780909 0 138 -0.780909 1
gene 1 27 10 -1.1542 0 139 -1.1542 1
gene 1 27 11 -0.829967 0 140 -0.829967 1
gene 1 27 12 0.673078 0 141 0.673078 1
gene 1 27 13 1.61795 0 142 1.61795 1
gene 1 27 14 0.521021 0 143 0.521021 1
gene 1 27 15 -0.498238 0 144 -0.498238 1
gene 1 27 16 -0.735104 0 145 -0.735104 1
gene 1 27 17 -0.514552 0 146 -0.514552 1
gene 1 27 18 1.91802 0 147 1.91802 1
gene 1 27 19 1.00228 0 148 1.00228 1
gene 1 27 20 -1.19012 0 149 -1.19012 1
gene 1 28 10 0.4048 0 150 0.4048 1
gene 1 28 11 -0.476205 0 151 -0.476205 1
gene 1 28 12 0.116646 0 152 0.116646 1
gene 1 28 13 -1.0493 0 153 -1.0493 1
gene 1 28 14 -1.38271 0 154 -1.38271 1
gene 1 28 15 0.872476 0 155 0.872476 1
gene 1 28 16 -0.789073 0 156 -0.789073 1
gene 1 28 17 0.0929306 0 157 0.0929306 1
gene 1 28 19 -1.96236 0 159 -1.96236 1
gene 1 28 20 -0.650943 0 160 -0.650943 1
genomeend 604
