/* Organism #618 Fitness: 1.004 Error: 0.996 */
genomestart 618
trait 1 0.149081 0.0895631 0.170025 0.107977 0.908219 0.227115 0.795648 0.006918 
node 1 1 0
node 2 1 1
node 3 1 1
node 4 1 1
node 5 1 1
node 6 1 1
node 7 1 1
node 8 1 1
node 9 1 1
node 10 1 2
node 11 1 2
node 12 1 2
node 13 1 2
node 14 1 2
node 15 1 2
node 16 1 2
node 17 1 2
node 18 1 2
node 19 1 2
node 20 1 2
node 21 1 3
node 23 1 3
node 24 1 3
node 25 1 3
node 26 1 3
node 27 1 3
node 28 1 3
gene 1 1 21 -0.566479 0 1 -0.566479 1
gene 1 1 23 -0.809768 0 3 -0.809768 1
gene 1 1 24 0.662565 0 4 0.662565 1
gene 1 1 25 0.313104 0 5 0.313104 1
gene 1 1 26 -0.0538384 0 6 -0.0538384 1
gene 1 1 27 0.922149 0 7 0.922149 1
gene 1 1 28 0.121247 0 8 0.121247 1
gene 1 2 21 0.214729 0 9 0.214729 1
gene 1 2 23 0.459136 0 11 0.459136 1
gene 1 2 24 -0.666256 0 12 -0.666256 1
gene 1 2 25 -0.0490959 0 13 -0.0490959 1
gene 1 2 26 0.0275521 0 14 0.0275521 1
gene 1 2 27 -0.073032 0 15 -0.073032 1
gene 1 2 28 0.841527 0 16 0.841527 1
gene 1 3 21 -0.983824 0 17 -0.983824 1
gene 1 3 23 -0.727544 0 19 -0.727544 1
gene 1 3 24 -0.66319 0 20 -0.66319 1
gene 1 3 25 -0.121858 0 21 -0.121858 1
gene 1 3 26 0.867893 0 22 0.867893 1
gene 1 3 27 0.575446 0 23 0.575446 1
gene 1 3 28 0.126142 0 24 0.126142 1
gene 1 4 21 -0.516099 0 25 -0.516099 1
gene 1 4 23 -0.491242 0 27 -0.491242 1
gene 1 4 24 -0.0269685 0 28 -0.0269685 1
gene 1 4 25 0.865903 0 29 0.865903 1
gene 1 4 26 -0.560997 0 30 -0.560997 1
gene 1 4 27 -0.817581 0 31 -0.817581 1
gene 1 4 28 0.1658 0 32 0.1658 1
gene 1 5 21 0.217772 0 33 0.217772 1
gene 1 5 23 -0.487972 0 35 -0.487972 1
gene 1 5 24 0.139516 0 36 0.139516 1
gene 1 5 25 -0.514799 0 37 -0.514799 1
gene 1 5 26 0.102454 0 38 0.102454 1
gene 1 5 27 0.370785 0 39 0.370785 1
gene 1 5 28 0.0362587 0 40 0.0362587 1
gene 1 6 21 0.946165 0 41 0.946165 1
gene 1 6 23 0.992747 0 43 0.992747 1
gene 1 6 24 0.300179 0 44 0.300179 1
gene 1 6 25 0.930128 0 45 0.930128 1
gene 1 6 26 0.891073 0 46 0.891073 1
gene 1 6 27 0.219497 0 47 0.219497 1
gene 1 6 28 0.593662 0 48 0.593662 1
gene 1 7 21 -0.0986285 0 49 -0.0986285 1
gene 1 7 23 0.295461 0 51 0.295461 1
gene 1 7 24 -0.499274 0 52 -0.499274 1
gene 1 7 25 0.357664 0 53 0.357664 1
gene 1 7 26 -0.712729 0 54 -0.712729 1
gene 1 7 27 0.657709 0 55 0.657709 1
gene 1 7 28 -0.0917685 0 56 -0.0917685 1
gene 1 8 21 -0.353867 0 57 -0.353867 1
gene 1 8 23 0.841505 0 59 0.841505 1
gene 1 8 24 0.342298 0 60 0.342298 1
gene 1 8 25 -0.00889938 0 61 -0.00889938 1
gene 1 8 26 -0.390269 0 62 -0.390269 1
gene 1 8 27 -0.562635 0 63 -0.562635 1
gene 1 8 28 0.528131 0 64 0.528131 1
gene 1 9 21 0.116126 0 65 0.116126 1
gene 1 9 23 0.338025 0 67 0.338025 1
gene 1 9 24 0.694092 0 68 0.694092 1
gene 1 9 25 0.960609 0 69 0.960609 1
gene 1 9 26 -0.786056 0 70 -0.786056 1
gene 1 9 27 -0.458832 0 71 -0.458832 1
gene 1 9 28 -0.584007 0 72 -0.584007 1
gene 1 21 10 -0.486797 0 73 -0.486797 1
gene 1 21 11 -0.849576 0 74 -0.849576 1
gene 1 21 12 -0.193638 0 75 -0.193638 1
gene 1 21 13 0.460608 0 76 0.460608 1
gene 1 21 15 0.00938273 0 78 0.00938273 1
gene 1 21 16 0.0942915 0 79 0.0942915 1
gene 1 21 17 0.574713 0 80 0.574713 1
gene 1 21 18 -0.898267 0 81 -0.898267 1
gene 1 21 19 -0.529054 0 82 -0.529054 1
gene 1 21 20 0.384537 0 83 0.384537 1
gene 1 23 10 0.565712 0 95 0.565712 1
gene 1 23 11 0.695981 0 96 0.695981 1
gene 1 23 12 -0.244833 0 97 -0.244833 1
gene 1 23 13 -0.0972289 0 98 -0.0972289 1
gene 1 23 14 0.313007 0 99 0.313007 1
gene 1 23 15 0.659658 0 100 0.659658 1
gene 1 23 16 0.129738 0 101 0.129738 1
gene 1 23 17 -0.0698468 0 102 -0.0698468 1
gene 1 23 18 0.47344 0 103 0.47344 1
gene 1 23 19 0.209666 0 104 0.209666 1
gene 1 23 20 0.0153239 0 105 0.0153239 1
gene 1 24 10 -0.740274 0 106 -0.740274 1
gene 1 24 11 -0.157194 0 107 -0.157194 1
gene 1 24 12 0.648236 0 108 0.648236 1
gene 1 24 13 -0.793877 0 109 -0.793877 1
gene 1 24 14 -0.821863 0 110 -0.821863 1
gene 1 24 15 -0.786637 0 111 -0.786637 1
gene 1 24 16 -0.716413 0 112 -0.716413 1
gene 1 24 17 -0.81147 0 113 -0.81147 1
gene 1 24 18 -0.979463 0 114 -0.979463 1
gene 1 24 19 0.32681 0 115 0.32681 1
gene 1 24 20 0.480285 0 116 0.480285 1
gene 1 25 10 0.351436 0 117 0.351436 1
gene 1 25 11 -0.629168 0 118 -0.629168 1
gene 1 25 12 0.739554 0 119 0.739554 1
gene 1 25 13 0.315521 0 120 0.315521 1
gene 1 25 14 0.300148 0 121 0.300148 1
gene 1 25 15 0.998822 0 122 0.998822 1
gene 1 25 16 -0.776975 0 123 -0.776975 1
gene 1 25 17 0.842264 0 124 0.842264 1
gene 1 25 18 0.0883779 0 125 0.0883779 1
gene 1 25 19 0.345217 0 126 0.345217 1
gene 1 25 20 0.761397 0 127 0.761397 1
gene 1 26 10 0.318949 0 128 0.318949 1
gene 1 26 11 0.263915 0 129 0.263915 1
gene 1 26 12 0.842937 0 130 0.842937 1
gene 1 26 13 -0.505943 0 131 -0.505943 1
gene 1 26 14 -0.416728 0 132 -0.416728 1
gene 1 26 15 0.817846 0 133 0.817846 1
gene 1 26 16 0.957912 0 134 0.957912 1
gene 1 26 17 0.821035 0 135 0.821035 1
gene 1 26 18 -0.795993 0 136 -0.795993 1
gene 1 26 19 -0.522273 0 137 -0.522273 1
gene 1 26 20 0.0974876 0 138 0.0974876 1
gene 1 27 10 -0.770863 0 139 -0.770863 1
gene 1 27 11 0.656769 0 140 0.656769 1
gene 1 27 12 -0.56207 0 141 -0.56207 1
gene 1 27 13 0.887222 0 142 0.887222 1
gene 1 27 14 0.329165 0 143 0.329165 1
gene 1 27 15 -0.577667 0 144 -0.577667 1
gene 1 27 16 0.841282 0 145 0.841282 1
gene 1 27 17 -0.541548 0 146 -0.541548 1
gene 1 27 18 0.99291 0 147 0.99291 1
gene 1 27 19 0.5548 0 148 0.5548 1
gene 1 27 20 0.357276 0 149 0.357276 1
gene 1 28 10 0.470105 0 150 0.470105 1
gene 1 28 11 -0.468603 0 151 -0.468603 1
gene 1 28 12 0.728341 0 152 0.728341 1
gene 1 28 13 -0.513563 0 153 -0.513563 1
gene 1 28 14 0.0455455 0 154 0.0455455 1
gene 1 28 15 -0.02813 0 155 -0.02813 1
gene 1 28 16 -0.642138 0 156 -0.642138 1
gene 1 28 17 -0.278995 0 157 -0.278995 1
gene 1 28 18 -0.000240086 0 158 -0.000240086 1
gene 1 28 19 -0.747623 0 159 -0.747623 1
gene 1 28 20 -0.196246 0 160 -0.196246 1
gene 1 20 18 0.394919 0 247 0.394919 1
gene 1 6 12 -0.613921 0 314 -0.613921 1
gene 1 15 11 0.65256 0 457 0.65256 1
gene 1 16 19 0.651969 0 584 0.651969 1
gene 1 14 13 -0.219109 0 722 -0.219109 1
genomeend 618
