/* Organism #73 Fitness: 1.011 Error: 0.989 */
genomestart 73
trait 1 0.354292 0.257112 0.713515 0.41452 0.827428 0.399709 0.897824 0.266572 
node 1 1 0
node 2 1 1
node 3 1 1
node 4 1 1
node 5 1 1
node 6 1 1
node 7 1 1
node 8 1 1
node 9 1 1
node 10 1 2
node 11 1 2
node 12 1 2
node 13 1 2
node 14 1 2
node 15 1 2
node 16 1 2
node 17 1 2
node 18 1 2
node 19 1 2
node 20 1 2
node 23 1 3
node 25 1 3
node 26 1 3
node 27 1 3
node 28 1 3
node 38 1 3
node 461 1 3
node 468 1 3
node 618 1 3
gene 1 1 23 -2.67098 0 3 -2.67098 1
gene 1 1 25 -1.67061 0 5 -1.67061 1
gene 1 1 27 -0.989523 0 7 -0.989523 1
gene 1 1 28 -2.09938 0 8 -2.09938 1
gene 1 2 23 -3.1108 0 11 -3.1108 1
gene 1 2 25 -3.84976 0 13 -3.84976 1
gene 1 2 27 3.06272 0 15 3.06272 1
gene 1 2 28 1.12669 0 16 1.12669 1
gene 1 3 23 -1.03162 0 19 -1.03162 1
gene 1 3 25 -7.90755 0 21 -7.90755 1
gene 1 3 26 2.56838 0 22 2.56838 1
gene 1 3 27 1.77829 0 23 1.77829 1
gene 1 4 23 0.577911 0 27 0.577911 1
gene 1 4 25 -2.47448 0 29 -2.47448 1
gene 1 4 26 -1.58767 0 30 -1.58767 1
gene 1 4 27 -3.6827 0 31 -3.6827 1
gene 1 4 28 5.17878 0 32 5.17878 1
gene 1 5 23 0.258513 0 35 0.258513 1
gene 1 5 25 -8 0 37 -8 1
gene 1 5 26 3.75858 0 38 3.75858 1
gene 1 5 27 3.11863 0 39 3.11863 1
gene 1 5 28 5.02457 0 40 5.02457 1
gene 1 6 23 -4.13814 0 43 -4.13814 1
gene 1 6 25 2.05158 0 45 2.05158 1
gene 1 6 27 0.493312 0 47 0.493312 1
gene 1 6 28 4.67748 0 48 4.67748 1
gene 1 7 25 -1.50312 0 53 -1.50312 1
gene 1 7 26 0.418154 0 54 0.418154 1
gene 1 7 27 0.537017 0 55 0.537017 1
gene 1 8 23 0.824305 0 59 0.824305 1
gene 1 8 25 3.32241 0 61 3.32241 1
gene 1 8 27 -0.875365 0 63 -0.875365 1
gene 1 8 28 3.56461 0 64 3.56461 1
gene 1 9 23 -5.33249 0 67 -5.33249 1
gene 1 9 25 2.31555 0 69 2.31555 1
gene 1 9 26 0.190697 0 70 0.190697 1
gene 1 23 10 -0.759927 0 95 -0.759927 1
gene 1 23 12 0.580117 0 97 0.580117 1
gene 1 23 13 -0.0926255 0 98 -0.0926255 1
gene 1 23 14 -5.76388 0 99 -5.76388 1
gene 1 23 15 -0.0998563 0 100 -0.0998563 1
gene 1 23 16 0.30392 0 101 0.30392 1
gene 1 23 18 0.421067 0 103 0.421067 1
gene 1 23 20 0.222146 0 105 0.222146 1
gene 1 25 10 -7.06646 0 117 -7.06646 1
gene 1 25 11 1.14306 0 118 1.14306 1
gene 1 25 14 0.587375 0 121 0.587375 1
gene 1 25 15 -3.98025 0 122 -3.98025 1
gene 1 25 16 -3.16006 0 123 -3.16006 1
gene 1 25 17 1.42425 0 124 1.42425 1
gene 1 25 18 -0.273635 0 125 -0.273635 1
gene 1 26 11 0.369069 0 129 0.369069 1
gene 1 26 13 -0.761594 0 131 -0.761594 1
gene 1 26 15 -2.22802 0 133 -2.22802 1
gene 1 26 16 1.28172 0 134 1.28172 1
gene 1 26 17 -0.540115 0 135 -0.540115 1
gene 1 26 18 2.32078 0 136 2.32078 1
gene 1 26 19 2.88953 0 137 2.88953 1
gene 1 26 20 3.06144 0 138 3.06144 1
gene 1 27 10 -0.0461286 0 139 -0.0461286 1
gene 1 27 11 -6.21355 0 140 -6.21355 1
gene 1 27 12 2.30233 0 141 2.30233 1
gene 1 27 13 2.04795 0 142 2.04795 1
gene 1 27 14 -1.96734 0 143 -1.96734 1
gene 1 27 16 -4.37344 0 145 -4.37344 1
gene 1 27 17 -6.71286 0 146 -6.71286 1
gene 1 27 18 -1.73996 0 147 -1.73996 1
gene 1 27 19 5.80831 0 148 5.80831 1
gene 1 27 20 -1.32726 0 149 -1.32726 1
gene 1 28 10 -1.48967 0 150 -1.48967 1
gene 1 28 11 -3.72129 0 151 -3.72129 1
gene 1 28 12 5.65576 0 152 5.65576 1
gene 1 28 13 -1.83431 0 153 -1.83431 1
gene 1 28 14 -1.07663 0 154 -1.07663 1
gene 1 28 15 2.19349 0 155 2.19349 1
gene 1 28 16 -1.41898 0 156 -1.41898 1
gene 1 28 17 3.80057 0 157 3.80057 1
gene 1 28 18 2.79975 0 158 2.79975 1
gene 1 11 11 4.51582 1 289 4.51582 1
gene 1 38 15 1.57094 0 446 1.57094 1
gene 1 6 38 1.04337 0 1049 1.04337 1
gene 1 25 38 -2.53864 0 2050 -2.53864 1
gene 1 1 11 1.27675 0 2943 1.27675 1
gene 1 20 20 0.913473 1 3164 0.913473 1
gene 1 7 11 1.77238 0 3317 1.77238 1
gene 1 10 15 -0.598689 0 3567 -0.598689 1
gene 1 4 13 0.0699122 0 3807 0.0699122 1
gene 1 1 10 2.1476 0 3953 2.1476 1
gene 1 18 27 -0.0660765 1 4086 -0.0660765 1
gene 1 8 19 -1.75573 0 4986 -1.75573 1
gene 1 13 12 3.22988 0 5552 3.22988 1
gene 1 14 38 -0.373425 0 5810 -0.373425 1
gene 1 12 15 -1.20728 0 5910 -1.20728 1
gene 1 3 12 0.780377 0 6177 0.780377 1
gene 1 19 14 -2.92218 0 6668 -2.92218 1
gene 1 27 23 1.93469 0 6791 1.93469 1
gene 1 7 12 0.194201 0 8011 0.194201 1
gene 1 18 26 0.903159 1 8171 0.903159 1
gene 1 9 20 -1.15153 0 8602 -1.15153 1
gene 1 38 16 -1.62591 0 8778 -1.62591 1
gene 1 20 18 -1.21153 0 9337 -1.21153 1
gene 1 19 19 -0.601953 1 10145 -0.601953 1
gene 1 14 14 0.00593444 1 10584 0.00593444 1
gene 1 13 13 0.449337 1 10676 0.449337 1
gene 1 26 26 1.00772 1 10801 1.00772 1
gene 1 17 20 0.427154 0 10958 0.427154 1
gene 1 27 461 0.0988508 0 11182 0.0988508 1
gene 1 461 15 -0.788911 0 11183 -0.788911 1
gene 1 8 468 1.39854 0 11299 1.39854 1
gene 1 468 26 -2.54335 0 11300 -2.54335 1
gene 1 18 11 2.52489 0 12330 2.52489 1
gene 1 27 15 -0.567819 0 12443 -0.567819 1
gene 1 38 38 0.422341 1 12956 0.422341 1
gene 1 468 14 -1.37533 0 13239 -1.37533 1
gene 1 28 28 -0.878032 1 13364 -0.878032 1
gene 1 17 11 -1.69392 0 13556 -1.69392 1
gene 1 11 20 1.38016 1 13897 1.38016 1
gene 1 18 18 0.534644 1 14018 0.534644 1
gene 1 25 461 1.29903 0 14136 1.29903 1
gene 1 10 10 1.27826 1 14634 1.27826 1
gene 1 18 10 0.344888 0 14841 0.344888 1
gene 1 23 23 -0.310072 1 14961 -0.310072 1
gene 1 13 10 -0.254731 0 15349 -0.254731 1
gene 1 25 618 1 0 15613 0 1
gene 1 618 13 0.733418 0 15614 0 1
gene 1 468 468 -0.628031 1 15753 -0.628031 1
gene 1 19 26 0.00861082 1 15847 0.00861082 1
gene 1 2 38 0.341303 0 16113 0.341303 1
gene 1 461 26 0.099991 0 16229 0.099991 1
genomeend 73
