/* Organism #545 Fitness: 1.001 Error: 0.999 */
genomestart 545
trait 1 0.149081 0.0747968 0.128545 0.107977 0.908219 0.227115 0.795648 0 
node 1 1 0
node 2 1 1
node 3 1 1
node 4 1 1
node 5 1 1
node 6 1 1
node 7 1 1
node 8 1 1
node 9 1 1
node 10 1 2
node 11 1 2
node 12 1 2
node 13 1 2
node 14 1 2
node 15 1 2
node 16 1 2
node 17 1 2
node 18 1 2
node 19 1 2
node 20 1 2
node 21 1 3
node 22 1 3
node 23 1 3
node 24 1 3
node 25 1 3
node 26 1 3
node 27 1 3
node 28 1 3
gene 1 1 21 -0.368673 0 1 -0.368673 1
gene 1 1 22 -0.475342 0 2 -0.475342 1
gene 1 1 23 -0.883937 0 3 -0.883937 1
gene 1 1 24 -0.23401 0 4 -0.23401 1
gene 1 1 25 -0.546862 0 5 -0.546862 1
gene 1 1 26 -0.212297 0 6 -0.212297 1
gene 1 1 27 -0.67769 0 7 -0.67769 1
gene 1 1 28 0.137662 0 8 0.137662 1
gene 1 2 21 0.837956 0 9 0.837956 1
gene 1 2 22 0.258715 0 10 0.258715 1
gene 1 2 23 -0.229923 0 11 -0.229923 1
gene 1 2 24 -0.48146 0 12 -0.48146 1
gene 1 2 25 0.665162 0 13 0.665162 1
gene 1 2 26 -0.206236 0 14 -0.206236 1
gene 1 2 27 -0.503538 0 15 -0.503538 1
gene 1 2 28 0.225681 0 16 0.225681 1
gene 1 3 21 -0.189018 0 17 -0.189018 1
gene 1 3 22 0.914982 0 18 0.914982 1
gene 1 3 23 -0.0289731 0 19 -0.0289731 1
gene 1 3 24 0.537147 0 20 0.537147 1
gene 1 3 25 0.563618 0 21 0.563618 1
gene 1 3 26 0.904269 0 22 0.904269 1
gene 1 3 27 -0.165925 0 23 -0.165925 1
gene 1 3 28 0.503177 0 24 0.503177 1
gene 1 4 21 0.188426 0 25 0.188426 1
gene 1 4 22 0.469797 0 26 0.469797 1
gene 1 4 23 0.500862 0 27 0.500862 1
gene 1 4 24 0.277546 0 28 0.277546 1
gene 1 4 25 0.219601 0 29 0.219601 1
gene 1 4 26 0.246057 0 30 0.246057 1
gene 1 4 27 -0.166971 0 31 -0.166971 1
gene 1 4 28 -0.899852 0 32 -0.899852 1
gene 1 5 21 0.0458584 0 33 0.0458584 1
gene 1 5 22 0.143204 0 34 0.143204 1
gene 1 5 23 0.788571 0 35 0.788571 1
gene 1 5 24 0.456819 0 36 0.456819 1
gene 1 5 25 0.563673 0 37 0.563673 1
gene 1 5 26 0.253826 0 38 0.253826 1
gene 1 5 27 -0.456584 0 39 -0.456584 1
gene 1 5 28 0.485818 0 40 0.485818 1
gene 1 6 21 -0.21865 0 41 -0.21865 1
gene 1 6 22 0.272325 0 42 0.272325 1
gene 1 6 23 0.0623653 0 43 0.0623653 1
gene 1 6 24 -0.678356 0 44 -0.678356 1
gene 1 6 25 -0.212529 0 45 -0.212529 1
gene 1 6 26 0.307487 0 46 0.307487 1
gene 1 6 27 0.474944 0 47 0.474944 1
gene 1 6 28 -0.151745 0 48 -0.151745 1
gene 1 7 21 -0.89303 0 49 -0.89303 1
gene 1 7 22 -0.678837 0 50 -0.678837 1
gene 1 7 23 -0.857926 0 51 -0.857926 1
gene 1 7 24 -0.238738 0 52 -0.238738 1
gene 1 7 25 -0.329255 0 53 -0.329255 1
gene 1 7 26 0.978353 0 54 0.978353 1
gene 1 7 27 -0.310819 0 55 -0.310819 1
gene 1 7 28 0.232394 0 56 0.232394 1
gene 1 8 21 0.455554 0 57 0.455554 1
gene 1 8 22 0.362839 0 58 0.362839 1
gene 1 8 23 -0.238719 0 59 -0.238719 1
gene 1 8 24 -0.239724 0 60 -0.239724 1
gene 1 8 25 -0.944307 0 61 -0.944307 1
gene 1 8 26 0.949811 0 62 0.949811 1
gene 1 8 27 -0.515118 0 63 -0.515118 1
gene 1 8 28 0.400475 0 64 0.400475 1
gene 1 9 21 0.454664 0 65 0.454664 1
gene 1 9 22 0.686315 0 66 0.686315 1
gene 1 9 23 0.787523 0 67 0.787523 1
gene 1 9 24 0.847392 0 68 0.847392 1
gene 1 9 25 -0.655718 0 69 -0.655718 1
gene 1 9 26 0.588285 0 70 0.588285 1
gene 1 9 27 -0.663885 0 71 -0.663885 1
gene 1 9 28 0.758055 0 72 0.758055 1
gene 1 21 10 0.964831 0 73 0.964831 1
gene 1 21 11 0.512015 0 74 0.512015 1
gene 1 21 12 -0.156737 0 75 -0.156737 1
gene 1 21 13 -0.942482 0 76 -0.942482 1
gene 1 21 14 -0.449947 0 77 -0.449947 1
gene 1 21 15 -0.191818 0 78 -0.191818 1
gene 1 21 16 0.999833 0 79 0.999833 1
gene 1 21 17 -0.245385 0 80 -0.245385 1
gene 1 21 18 -0.8417 0 81 -0.8417 1
gene 1 21 19 -0.383269 0 82 -0.383269 1
gene 1 21 20 0.716591 0 83 0.716591 1
gene 1 22 10 0.807635 0 84 0.807635 1
gene 1 22 11 0.428132 0 85 0.428132 1
gene 1 22 12 0.710029 0 86 0.710029 1
gene 1 22 13 -0.602758 0 87 -0.602758 1
gene 1 22 14 0.523867 0 88 0.523867 1
gene 1 22 15 0.5885 0 89 0.5885 1
gene 1 22 16 0.999804 0 90 0.999804 1
gene 1 22 17 0.195162 0 91 0.195162 1
gene 1 22 18 -0.488967 0 92 -0.488967 1
gene 1 22 19 -0.272752 0 93 -0.272752 1
gene 1 22 20 -0.346849 0 94 -0.346849 1
gene 1 23 10 -0.987913 0 95 -0.987913 1
gene 1 23 11 0.0396902 0 96 0.0396902 1
gene 1 23 12 -0.193399 0 97 -0.193399 1
gene 1 23 13 -0.124672 0 98 -0.124672 1
gene 1 23 14 -0.0120537 0 99 -0.0120537 1
gene 1 23 15 0.347972 0 100 0.347972 1
gene 1 23 16 -0.309858 0 101 -0.309858 1
gene 1 23 17 0.111907 0 102 0.111907 1
gene 1 23 18 0.810282 0 103 0.810282 1
gene 1 23 19 -0.983138 0 104 -0.983138 1
gene 1 23 20 0.350687 0 105 0.350687 1
gene 1 24 10 0.867382 0 106 0.867382 1
gene 1 24 11 -0.431425 0 107 -0.431425 1
gene 1 24 12 0.761608 0 108 0.761608 1
gene 1 24 13 -0.46102 0 109 -0.46102 1
gene 1 24 14 -0.0361084 0 110 -0.0361084 1
gene 1 24 15 0.0797361 0 111 0.0797361 1
gene 1 24 16 -0.792437 0 112 -0.792437 1
gene 1 24 17 -0.343882 0 113 -0.343882 1
gene 1 24 18 0.0654275 0 114 0.0654275 1
gene 1 24 19 0.0327156 0 115 0.0327156 1
gene 1 24 20 0.0407819 0 116 0.0407819 1
gene 1 25 10 -0.151565 0 117 -0.151565 1
gene 1 25 11 -0.0570794 0 118 -0.0570794 1
gene 1 25 12 -0.917259 0 119 -0.917259 1
gene 1 25 13 -0.173253 0 120 -0.173253 1
gene 1 25 14 0.864357 0 121 0.864357 1
gene 1 25 15 -0.177693 0 122 -0.177693 1
gene 1 25 16 -0.452324 0 123 -0.452324 1
gene 1 25 17 -0.379513 0 124 -0.379513 1
gene 1 25 18 -0.127142 0 125 -0.127142 1
gene 1 25 19 0.910084 0 126 0.910084 1
gene 1 25 20 0.0707029 0 127 0.0707029 1
gene 1 26 10 -0.120249 0 128 -0.120249 1
gene 1 26 11 -0.161937 0 129 -0.161937 1
gene 1 26 12 0.200938 0 130 0.200938 1
gene 1 26 13 -0.665532 0 131 -0.665532 1
gene 1 26 14 0.601049 0 132 0.601049 1
gene 1 26 15 0.747016 0 133 0.747016 1
gene 1 26 16 -0.593635 0 134 -0.593635 1
gene 1 26 17 -0.869681 0 135 -0.869681 1
gene 1 26 18 0.629089 0 136 0.629089 1
gene 1 26 19 -0.341815 0 137 -0.341815 1
gene 1 26 20 0.937055 0 138 0.937055 1
gene 1 27 10 -0.238075 0 139 -0.238075 1
gene 1 27 11 -0.982698 0 140 -0.982698 1
gene 1 27 12 -0.982575 0 141 -0.982575 1
gene 1 27 13 -0.412978 0 142 -0.412978 1
gene 1 27 14 0.900378 0 143 0.900378 1
gene 1 27 15 0.730391 0 144 0.730391 1
gene 1 27 16 0.134099 0 145 0.134099 1
gene 1 27 17 0.742002 0 146 0.742002 1
gene 1 27 18 0.59408 0 147 0.59408 1
gene 1 27 19 0.533117 0 148 0.533117 1
gene 1 27 20 -0.914827 0 149 -0.914827 1
gene 1 28 10 -0.52168 0 150 -0.52168 1
gene 1 28 11 0.558244 0 151 0.558244 1
gene 1 28 12 -0.40989 0 152 -0.40989 1
gene 1 28 13 -0.771332 0 153 -0.771332 1
gene 1 28 14 0.52111 0 154 0.52111 1
gene 1 28 15 -0.18652 0 155 -0.18652 1
gene 1 28 16 0.780639 0 156 0.780639 1
gene 1 28 17 -0.387325 0 157 -0.387325 1
gene 1 28 18 0.17374 0 158 0.17374 1
gene 1 28 19 -0.401311 0 159 -0.401311 1
gene 1 28 20 0.765797 0 160 0.765797 1
genomeend 545
