/* Organism #467 Fitness: 1.007 Error: 0.993 */
genomestart 467
trait 1 0.149081 0.0747968 0.0964085 0.0809827 0.754221 0.30773 0.795648 0 
node 1 1 0
node 2 1 1
node 3 1 1
node 4 1 1
node 5 1 1
node 6 1 1
node 7 1 1
node 8 1 1
node 9 1 1
node 10 1 2
node 11 1 2
node 12 1 2
node 13 1 2
node 14 1 2
node 15 1 2
node 16 1 2
node 17 1 2
node 18 1 2
node 19 1 2
node 20 1 2
node 21 1 3
node 22 1 3
node 23 1 3
node 24 1 3
node 25 1 3
node 27 1 3
gene 1 1 21 1.89413 0 1 1.89413 1
gene 1 1 22 0.113418 0 2 0.113418 1
gene 1 1 23 -0.375457 0 3 -0.375457 1
gene 1 1 24 -1.96854 0 4 -1.96854 1
gene 1 1 25 -0.463873 0 5 -0.463873 1
gene 1 1 27 -0.338125 0 7 -0.338125 1
gene 1 2 21 -0.208614 0 9 -0.208614 1
gene 1 2 22 0.388777 0 10 0.388777 1
gene 1 2 23 -1.77974 0 11 -1.77974 1
gene 1 2 24 -1.23309 0 12 -1.23309 1
gene 1 2 25 -0.968321 0 13 -0.968321 1
gene 1 2 27 0.798011 0 15 0.798011 1
gene 1 3 21 0.371856 0 17 0.371856 1
gene 1 3 22 0.634275 0 18 0.634275 1
gene 1 3 23 -0.300133 0 19 -0.300133 1
gene 1 3 24 -1.09565 0 20 -1.09565 1
gene 1 3 25 0.90594 0 21 0.90594 1
gene 1 3 27 -2.23536 0 23 -2.23536 1
gene 1 4 22 -0.386514 0 26 -0.386514 1
gene 1 4 23 -1.4724 0 27 -1.4724 1
gene 1 4 24 -2.02664 0 28 -2.02664 1
gene 1 4 25 0.544346 0 29 0.544346 1
gene 1 4 27 -1.39616 0 31 -1.39616 1
gene 1 5 21 0.947508 0 33 0.947508 1
gene 1 5 22 0.659262 0 34 0.659262 1
gene 1 5 23 -0.651314 0 35 -0.651314 1
gene 1 5 24 -0.499882 0 36 -0.499882 1
gene 1 5 25 0.155843 0 37 0.155843 1
gene 1 5 27 0.736332 0 39 0.736332 1
gene 1 6 21 0.751041 0 41 0.751041 1
gene 1 6 23 0.471719 0 43 0.471719 1
gene 1 6 24 0.327351 0 44 0.327351 1
gene 1 6 25 -0.104603 0 45 -0.104603 1
gene 1 6 27 1.8244 0 47 1.8244 1
gene 1 7 21 0.242507 0 49 0.242507 1
gene 1 7 22 0.673854 0 50 0.673854 1
gene 1 7 23 -0.617652 0 51 -0.617652 1
gene 1 7 24 1.40312 0 52 1.40312 1
gene 1 7 25 1.21815 0 53 1.21815 1
gene 1 7 27 0.531319 0 55 0.531319 1
gene 1 8 21 0.320612 0 57 0.320612 1
gene 1 8 22 -0.261189 0 58 -0.261189 1
gene 1 8 23 -0.379635 0 59 -0.379635 1
gene 1 8 24 -0.0851259 0 60 -0.0851259 1
gene 1 8 25 0.107785 0 61 0.107785 1
gene 1 8 27 0.154964 0 63 0.154964 1
gene 1 9 21 -0.858158 0 65 -0.858158 1
gene 1 9 22 -0.703304 0 66 -0.703304 1
gene 1 9 23 -1.64587 0 67 -1.64587 1
gene 1 9 24 -0.335712 0 68 -0.335712 1
gene 1 9 25 0.343495 0 69 0.343495 1
gene 1 9 27 0.331397 0 71 0.331397 1
gene 1 21 10 -1.52395 0 73 -1.52395 1
gene 1 21 11 -0.520862 0 74 -0.520862 1
gene 1 21 12 1.32912 0 75 1.32912 1
gene 1 21 13 -0.945483 0 76 -0.945483 1
gene 1 21 14 0.102161 0 77 0.102161 1
gene 1 21 15 -0.76313 0 78 -0.76313 1
gene 1 21 16 -1.54894 0 79 -1.54894 1
gene 1 21 17 0.0711126 0 80 0.0711126 1
gene 1 21 18 -0.515006 0 81 -0.515006 1
gene 1 21 19 0.839679 0 82 0.839679 1
gene 1 21 20 0.386997 0 83 0.386997 1
gene 1 22 10 2.64236 0 84 2.64236 1
gene 1 22 11 -0.652508 0 85 -0.652508 1
gene 1 22 12 -0.44254 0 86 -0.44254 1
gene 1 22 13 0.430126 0 87 0.430126 1
gene 1 22 14 0.869335 0 88 0.869335 1
gene 1 22 15 -0.0905582 0 89 -0.0905582 1
gene 1 22 16 2.09076 0 90 2.09076 1
gene 1 22 17 -0.484349 0 91 -0.484349 1
gene 1 22 18 1.177 0 92 1.177 1
gene 1 22 19 -0.217071 0 93 -0.217071 1
gene 1 22 20 -2.65163 0 94 -2.65163 1
gene 1 23 10 -0.447759 0 95 -0.447759 1
gene 1 23 11 0.00680843 0 96 0.00680843 1
gene 1 23 12 -1.55461 0 97 -1.55461 1
gene 1 23 13 2.79123 0 98 2.79123 1
gene 1 23 14 0.571309 0 99 0.571309 1
gene 1 23 15 -0.300642 0 100 -0.300642 1
gene 1 23 16 -1.13675 0 101 -1.13675 1
gene 1 23 17 -0.547467 0 102 -0.547467 1
gene 1 23 18 0.854946 0 103 0.854946 1
gene 1 23 19 -0.179512 0 104 -0.179512 1
gene 1 23 20 0.453011 0 105 0.453011 1
gene 1 24 10 -0.357117 0 106 -0.357117 1
gene 1 24 11 0.146249 0 107 0.146249 1
gene 1 24 12 0.768169 0 108 0.768169 1
gene 1 24 13 -2.15904 0 109 -2.15904 1
gene 1 24 14 -1.24123 0 110 -1.24123 1
gene 1 24 15 -0.0425389 0 111 -0.0425389 1
gene 1 24 16 0.573415 0 112 0.573415 1
gene 1 24 17 2.14041 0 113 2.14041 1
gene 1 24 18 -0.117447 0 114 -0.117447 1
gene 1 24 19 -0.701702 0 115 -0.701702 1
gene 1 24 20 -1.21662 0 116 -1.21662 1
gene 1 25 10 -0.0517059 0 117 -0.0517059 1
gene 1 25 11 -1.27593 0 118 -1.27593 1
gene 1 25 12 0.679031 0 119 0.679031 1
gene 1 25 13 0.977815 0 120 0.977815 1
gene 1 25 14 -1.23041 0 121 -1.23041 1
gene 1 25 15 -1.66927 0 122 -1.66927 1
gene 1 25 16 0.935933 0 123 0.935933 1
gene 1 25 17 0.196625 0 124 0.196625 1
gene 1 25 18 -0.38159 0 125 -0.38159 1
gene 1 25 19 0.38105 0 126 0.38105 1
gene 1 25 20 -1.00607 0 127 -1.00607 1
gene 1 27 10 0.161922 0 139 0.161922 1
gene 1 27 11 1.32408 0 140 1.32408 1
gene 1 27 12 2.23576 0 141 2.23576 1
gene 1 27 13 -0.855797 0 142 -0.855797 1
gene 1 27 14 0.181099 0 143 0.181099 1
gene 1 27 15 -1.38465 0 144 -1.38465 1
gene 1 27 16 0.983213 0 145 0.983213 1
gene 1 27 17 -0.663724 0 146 -0.663724 1
gene 1 27 18 1.47458 0 147 1.47458 1
gene 1 27 19 -0.308035 0 148 -0.308035 1
gene 1 27 20 1.07336 0 149 1.07336 1
gene 1 15 15 -1.22755 1 163 -1.22755 1
gene 1 14 15 2.00607 0 621 2.00607 1
gene 1 27 23 0.833454 0 752 0.833454 1
gene 1 5 15 -0.270661 0 1112 -0.270661 1
genomeend 467
