/* Organism #129 Fitness: 1.012 Error: 0.988 */
genomestart 129
trait 1 0.844403 0.526149 0.00771071 0.269374 0.782672 0.183431 0.251042 0.464997 
node 1 1 0
node 2 1 1
node 3 1 1
node 4 1 1
node 5 1 1
node 6 1 1
node 7 1 1
node 8 1 1
node 9 1 1
node 10 1 2
node 11 1 2
node 12 1 2
node 13 1 2
node 14 1 2
node 15 1 2
node 16 1 2
node 17 1 2
node 18 1 2
node 19 1 2
node 20 1 2
node 23 1 3
node 25 1 3
node 827 1 3
node 1292 1 3
node 1842 1 3
node 2003 1 3
gene 1 1 23 -0.879521 0 3 -0.879521 1
gene 1 1 25 0.905741 0 5 0.905741 1
gene 1 2 25 -0.924339 0 13 -0.924339 1
gene 1 3 23 -0.283728 0 19 -0.283728 1
gene 1 3 25 -5.1601 0 21 -5.1601 1
gene 1 4 23 0.636404 0 27 0.636404 1
gene 1 5 23 -1.72446 0 35 -1.72446 1
gene 1 5 25 -8 0 37 -8 1
gene 1 6 25 -1.68611 0 45 -1.68611 1
gene 1 8 23 -0.172712 0 59 -0.172712 1
gene 1 8 25 -0.255408 0 61 -0.255408 1
gene 1 9 25 -0.580431 0 69 -0.580431 1
gene 1 23 10 1.25908 0 95 1.25908 1
gene 1 23 14 -8 0 99 -8 1
gene 1 23 15 1.38378 0 100 1.38378 1
gene 1 23 18 2.99572 0 103 2.99572 1
gene 1 23 20 2.8251 0 105 2.8251 1
gene 1 25 10 -7.03277 0 117 -7.03277 1
gene 1 25 13 -3.53573 0 120 -3.53573 1
gene 1 25 14 -1.54127 0 121 -1.54127 1
gene 1 25 15 1.19373 0 122 1.19373 1
gene 1 25 17 6.38686 0 124 6.38686 1
gene 1 11 11 0.496705 1 289 0.496705 1
gene 1 7 11 0.41738 0 3317 0.41738 1
gene 1 13 12 3.42797 0 5552 3.42797 1
gene 1 2 16 -0.436961 0 6308 -0.436961 1
gene 1 20 18 -1.26008 0 9337 -1.26008 1
gene 1 19 19 -0.175015 1 10145 -0.175015 1
gene 1 17 20 0.50145 0 10958 0.50145 1
gene 1 11 20 -0.663408 1 13897 -0.663408 1
gene 1 11 19 0.895563 1 16046 0.895563 1
gene 1 1 13 6.37098 0 16507 6.37098 1
gene 1 3 16 -1.80266 0 16977 -1.80266 1
gene 1 827 13 0.485798 0 21879 0.485798 1
gene 1 14 18 1.50384 0 22129 1.50384 1
gene 1 11 827 0.743594 0 23096 0.743594 1
gene 1 25 25 4.49443 1 23478 4.49443 1
gene 1 13 13 1.81534 1 24465 1.81534 1
gene 1 17 13 0.543265 0 28180 0.543265 1
gene 1 18 12 0.278711 0 28352 0.278711 1
gene 1 16 827 -3.98483 0 29077 -3.98483 1
gene 1 7 10 1.42833 0 29160 1.42833 1
gene 1 6 20 -3.0356 0 29323 -3.0356 1
gene 1 19 23 -6.12637 0 30945 -6.12637 1
gene 1 4 14 0.819134 0 32747 0.819134 1
gene 1 17 16 -1.41188 0 33650 -1.41188 1
gene 1 7 16 7.71852 0 34562 7.71852 1
gene 1 1292 1292 -1.99845 1 34687 -1.99845 1
gene 1 8 827 3.07869 0 34915 3.07869 1
gene 1 2 14 2.6303 0 35112 2.6303 1
gene 1 17 10 6.00319 0 35263 6.00319 1
gene 1 1 11 1.51826 0 35460 1.51826 1
gene 1 2 17 4.97257 0 35777 4.97257 1
gene 1 7 20 -3.92075 0 36500 -3.92075 1
gene 1 8 11 -6.00799 0 36644 -6.00799 1
gene 1 14 827 0.282587 0 36844 0.282587 1
gene 1 3 18 -1.18934 0 37101 -1.18934 1
gene 1 13 19 6.11118 1 37251 6.11118 1
gene 1 18 16 -3.5608 0 37952 -3.5608 1
gene 1 4 18 0.923608 0 39031 0.923608 1
gene 1 19 13 4.80539 0 39413 4.80539 1
gene 1 10 10 1.80076 1 40340 1.80076 1
gene 1 12 12 -0.161846 1 40471 -0.161846 1
gene 1 5 19 2.65271 0 40690 2.65271 1
gene 1 14 15 2.58903 0 40979 2.58903 1
gene 1 6 15 -1.49256 0 41726 -1.49256 1
gene 1 1 15 3.46923 0 41817 3.46923 1
gene 1 23 1292 -0.142812 0 41885 -0.142812 1
gene 1 11 1292 -1.49404 0 42012 -1.49404 1
gene 1 1 827 2.54918 0 42382 2.54918 1
gene 1 17 18 4.53459 0 42485 4.53459 1
gene 1 14 13 3.45629 0 42989 3.45629 1
gene 1 10 16 -3.84736 0 43647 -3.84736 1
gene 1 3 17 -1.53184 0 44019 -1.53184 1
gene 1 8 20 5.19777 0 44229 5.19777 1
gene 1 1292 12 1.12393 0 44769 1.12393 1
gene 1 1292 16 2.04211 0 44911 2.04211 1
gene 1 23 11 2.60867 0 45290 2.60867 1
gene 1 14 14 -0.490081 1 46105 -0.490081 1
gene 1 15 20 -0.946532 0 46400 -0.946532 1
gene 1 3 19 -1.72909 0 46535 -1.72909 1
gene 1 4 16 -0.890067 0 46708 -0.890067 1
gene 1 4 11 0.322803 0 47476 0.322803 1
gene 1 25 1842 -1.98548 0 47628 -1.98548 1
gene 1 10 12 2.90021 0 48676 2.90021 1
gene 1 15 15 -4.87895 1 48905 -4.87895 1
gene 1 19 16 -1.18918 0 49129 -1.18918 1
gene 1 6 19 -2.33574 0 49291 -2.33574 1
gene 1 15 18 0.910452 0 49484 0.910452 1
gene 1 6 16 -2.31986 0 49562 -2.31986 1
gene 1 20 16 0.0661818 0 50443 0.0661818 1
gene 1 23 23 1.37493 1 51444 1.37493 1
gene 1 14 10 -1.34483 0 51586 -1.34483 1
gene 1 11 10 2.516 0 51997 2.516 1
gene 1 3 1292 -0.0896176 0 52109 -0.0896176 1
gene 1 1842 2003 -2.44742 0 52207 -2.44742 1
gene 1 2003 11 -0.983305 0 52208 -0.983305 1
gene 1 2 20 -1.52504 0 52473 -1.52504 1
gene 1 7 13 1.06603 0 52601 1.06603 1
gene 1 1292 13 0.0072323 0 52958 0.0072323 1
genomeend 129
