/* Organism #301 Fitness: 1.009 Error: 0.991 */
genomestart 301
trait 1 0.353685 0.950669 0.454864 0.136163 0.636661 0.78027 0.797959 0.447689 
node 1 1 0
node 2 1 1
node 3 1 1
node 4 1 1
node 5 1 1
node 6 1 1
node 7 1 1
node 8 1 1
node 9 1 1
node 10 1 2
node 11 1 2
node 12 1 2
node 13 1 2
node 14 1 2
node 15 1 2
node 16 1 2
node 17 1 2
node 18 1 2
node 19 1 2
node 20 1 2
node 21 1 3
node 22 1 3
node 23 1 3
node 24 1 3
node 25 1 3
node 26 1 3
node 27 1 3
node 28 1 3
gene 1 1 21 0.246117 0 1 0.246117 1
gene 1 1 22 -3.28631 0 2 -3.28631 1
gene 1 1 23 1.70418 0 3 1.70418 1
gene 1 1 24 -2.6353 0 4 -2.6353 1
gene 1 1 25 0.262468 0 5 0.262468 1
gene 1 1 26 -0.660925 0 6 -0.660925 1
gene 1 1 27 1.26255 0 7 1.26255 1
gene 1 1 28 2.61401 0 8 2.61401 1
gene 1 2 21 1.2806 0 9 1.2806 1
gene 1 2 22 -0.397883 0 10 -0.397883 1
gene 1 2 23 -2.88627 0 11 -2.88627 1
gene 1 2 24 1.31344 0 12 1.31344 1
gene 1 2 25 0.654215 0 13 0.654215 1
gene 1 2 26 2.13717 0 14 2.13717 1
gene 1 2 27 -1.14796 0 15 -1.14796 1
gene 1 3 21 -3.62157 0 17 -3.62157 1
gene 1 3 22 3.23616 0 18 3.23616 1
gene 1 3 23 0.105699 0 19 0.105699 1
gene 1 3 24 1.0598 0 20 1.0598 1
gene 1 3 25 1.11167 0 21 1.11167 1
gene 1 3 26 -2.86257 0 22 -2.86257 1
gene 1 3 27 0.27177 0 23 0.27177 1
gene 1 3 28 -1.47023 0 24 -1.47023 1
gene 1 4 21 -3.26236 0 25 -3.26236 1
gene 1 4 22 0.757877 0 26 0.757877 1
gene 1 4 23 3.28051 0 27 3.28051 1
gene 1 4 24 -0.396875 0 28 -0.396875 1
gene 1 4 25 -0.596577 0 29 -0.596577 1
gene 1 4 26 0.376696 0 30 0.376696 1
gene 1 4 27 0.347201 0 31 0.347201 1
gene 1 4 28 1.41337 0 32 1.41337 1
gene 1 5 21 -4.4795 0 33 -4.4795 1
gene 1 5 22 -0.301237 0 34 -0.301237 1
gene 1 5 23 -0.68069 0 35 -0.68069 1
gene 1 5 24 -1.63467 0 36 -1.63467 1
gene 1 5 25 -0.338554 0 37 -0.338554 1
gene 1 5 26 1.585 0 38 1.585 1
gene 1 5 27 0.505929 0 39 0.505929 1
gene 1 5 28 1.56021 0 40 1.56021 1
gene 1 6 21 0.40693 0 41 0.40693 1
gene 1 6 22 -1.76474 0 42 -1.76474 1
gene 1 6 23 2.73837 0 43 2.73837 1
gene 1 6 24 -0.212295 0 44 -0.212295 1
gene 1 6 25 0.396781 0 45 0.396781 1
gene 1 6 26 2.3517 0 46 2.3517 1
gene 1 6 27 0.0804281 0 47 0.0804281 1
gene 1 6 28 3.62119 0 48 3.62119 1
gene 1 7 21 0.436971 0 49 0.436971 1
gene 1 7 22 -0.849518 0 50 -0.849518 1
gene 1 7 23 -0.532631 0 51 -0.532631 1
gene 1 7 24 -0.259099 0 52 -0.259099 1
gene 1 7 25 2.0738 0 53 2.0738 1
gene 1 7 26 2.19813 0 54 2.19813 1
gene 1 7 27 0.80051 0 55 0.80051 1
gene 1 7 28 -1.24481 0 56 -1.24481 1
gene 1 8 21 -0.263026 0 57 -0.263026 1
gene 1 8 22 1.79892 0 58 1.79892 1
gene 1 8 23 1.27782 0 59 1.27782 1
gene 1 8 24 2.86966 0 60 2.86966 1
gene 1 8 25 -3.96671 0 61 -3.96671 1
gene 1 8 26 -0.98617 0 62 -0.98617 1
gene 1 8 27 0.286838 0 63 0.286838 1
gene 1 8 28 -4.3435 0 64 -4.3435 1
gene 1 9 21 0.862862 0 65 0.862862 1
gene 1 9 22 -0.19283 0 66 -0.19283 1
gene 1 9 23 -0.399696 0 67 -0.399696 1
gene 1 9 24 -1.32308 0 68 -1.32308 1
gene 1 9 25 1.11094 0 69 1.11094 1
gene 1 9 26 -0.377343 0 70 -0.377343 1
gene 1 9 27 0.484395 0 71 0.484395 1
gene 1 9 28 0.495346 0 72 0.495346 1
gene 1 21 10 -4.94501 0 73 -4.94501 1
gene 1 21 11 2.64955 0 74 2.64955 1
gene 1 21 12 -0.890939 0 75 -0.890939 1
gene 1 21 13 1.15327 0 76 1.15327 1
gene 1 21 14 0.160826 0 77 0.160826 1
gene 1 21 15 0.831887 0 78 0.831887 1
gene 1 21 16 -0.487045 0 79 -0.487045 1
gene 1 21 17 2.44669 0 80 2.44669 1
gene 1 21 18 1.18275 0 81 1.18275 1
gene 1 21 19 -2.94081 0 82 -2.94081 1
gene 1 21 20 -2.71996 0 83 -2.71996 1
gene 1 22 10 -1.38938 0 84 -1.38938 1
gene 1 22 11 1.15999 0 85 1.15999 1
gene 1 22 12 -2.87093 0 86 -2.87093 1
gene 1 22 13 0.75695 0 87 0.75695 1
gene 1 22 14 -4.45333 0 88 -4.45333 1
gene 1 22 15 0.9714 0 89 0.9714 1
gene 1 22 16 -0.932645 0 90 -0.932645 1
gene 1 22 17 -0.255067 0 91 -0.255067 1
gene 1 22 18 -4.00168 0 92 -4.00168 1
gene 1 22 19 0.261727 0 93 0.261727 1
gene 1 22 20 0.14632 0 94 0.14632 1
gene 1 23 10 -1.40586 0 95 -1.40586 1
gene 1 23 11 1.03732 0 96 1.03732 1
gene 1 23 12 -0.749186 0 97 -0.749186 1
gene 1 23 13 0.623847 0 98 0.623847 1
gene 1 23 14 0.116325 0 99 0.116325 1
gene 1 23 15 0.789155 0 100 0.789155 1
gene 1 23 16 0.681747 0 101 0.681747 1
gene 1 23 17 -0.946178 0 102 -0.946178 1
gene 1 23 18 0.649718 0 103 0.649718 1
gene 1 23 19 -1.60901 0 104 -1.60901 1
gene 1 23 20 -3.68 0 105 -3.68 1
gene 1 24 10 2.37173 0 106 2.37173 1
gene 1 24 11 0.713192 0 107 0.713192 1
gene 1 24 12 -6.41847 0 108 -6.41847 1
gene 1 24 13 1.91942 0 109 1.91942 1
gene 1 24 14 -1.43112 0 110 -1.43112 1
gene 1 24 15 -1.17557 0 111 -1.17557 1
gene 1 24 16 -1.78138 0 112 -1.78138 1
gene 1 24 17 -2.0911 0 113 -2.0911 1
gene 1 24 18 -0.668927 0 114 -0.668927 1
gene 1 24 19 0.880374 0 115 0.880374 1
gene 1 24 20 -0.944933 0 116 -0.944933 1
gene 1 25 10 2.66852 0 117 2.66852 1
gene 1 25 11 -1.05057 0 118 -1.05057 1
gene 1 25 12 0.178774 0 119 0.178774 1
gene 1 25 13 -1.71223 0 120 -1.71223 1
gene 1 25 14 -1.1772 0 121 -1.1772 1
gene 1 25 15 0.200395 0 122 0.200395 1
gene 1 25 16 0.601514 0 123 0.601514 1
gene 1 25 17 0.170517 0 124 0.170517 1
gene 1 25 18 -0.598694 0 125 -0.598694 1
gene 1 25 19 0.205778 0 126 0.205778 1
gene 1 25 20 1.24953 0 127 1.24953 1
gene 1 26 10 -1.25743 0 128 -1.25743 1
gene 1 26 11 0.712412 0 129 0.712412 1
gene 1 26 12 6.6342 0 130 6.6342 1
gene 1 26 13 -0.182506 0 131 -0.182506 1
gene 1 26 14 -0.854369 0 132 -0.854369 1
gene 1 26 15 -0.0224438 0 133 -0.0224438 1
gene 1 26 16 0.160398 0 134 0.160398 1
gene 1 26 17 0.303982 0 135 0.303982 1
gene 1 26 18 -0.964486 0 136 -0.964486 1
gene 1 26 19 0.615415 0 137 0.615415 1
gene 1 26 20 0.0915485 0 138 0.0915485 1
gene 1 27 10 -1.78758 0 139 -1.78758 1
gene 1 27 11 1.02909 0 140 1.02909 1
gene 1 27 12 0.253096 0 141 0.253096 1
gene 1 27 13 0.0678886 0 142 0.0678886 1
gene 1 27 14 0.787751 0 143 0.787751 1
gene 1 27 15 1.93779 0 144 1.93779 1
gene 1 27 16 1.11306 0 145 1.11306 1
gene 1 27 17 0.249882 0 146 0.249882 1
gene 1 27 18 0.874116 0 147 0.874116 1
gene 1 27 19 -0.661716 0 148 -0.661716 1
gene 1 27 20 1.69573 0 149 1.69573 1
gene 1 28 10 0.87523 0 150 0.87523 1
gene 1 28 12 0.182017 0 152 0.182017 1
gene 1 28 13 -2.21282 0 153 -2.21282 1
gene 1 28 14 -1.607 0 154 -1.607 1
gene 1 28 15 -0.736484 0 155 -0.736484 1
gene 1 28 16 -0.407201 0 156 -0.407201 1
gene 1 28 17 0.385269 0 157 0.385269 1
gene 1 28 18 -0.163227 0 158 -0.163227 1
gene 1 28 19 3.29113 0 159 3.29113 1
gene 1 28 20 0.619599 0 160 0.619599 1
gene 1 27 27 1.07212 1 304 1.07212 1
gene 1 11 20 -0.954892 0 832 -0.954892 1
gene 1 11 19 0.35087 0 1200 0.35087 1
gene 1 20 12 -1.29313 0 1254 -1.29313 1
gene 1 9 12 1.46369 0 1459 1.46369 1
gene 1 20 13 0.668992 0 1579 0.668992 1
gene 1 11 11 0.98096 1 2064 0.98096 1
gene 1 23 28 -0.312548 0 2193 -0.312548 1
gene 1 3 14 -0.984793 0 2860 -0.984793 1
gene 1 27 28 -0.314801 0 3208 -0.314801 1
gene 1 26 24 -0.213576 0 3724 -0.213576 1
genomeend 301
