/* Organism #100 Fitness: 1.003 Error: 0.997 */
genomestart 100
trait 1 0.149081 0.0747968 0.128545 0.107977 0.908219 0.227115 0.795648 0 
node 1 1 0
node 2 1 1
node 3 1 1
node 4 1 1
node 5 1 1
node 6 1 1
node 7 1 1
node 8 1 1
node 9 1 1
node 10 1 2
node 11 1 2
node 12 1 2
node 13 1 2
node 14 1 2
node 15 1 2
node 16 1 2
node 17 1 2
node 18 1 2
node 19 1 2
node 20 1 2
node 21 1 3
node 22 1 3
node 23 1 3
node 24 1 3
node 25 1 3
node 27 1 3
node 28 1 3
gene 1 1 21 -0.344376 0 1 -0.344376 1
gene 1 1 22 0.862026 0 2 0.862026 1
gene 1 1 23 0.311118 0 3 0.311118 1
gene 1 1 24 -0.738204 0 4 -0.738204 1
gene 1 1 25 0.413925 0 5 0.413925 1
gene 1 1 27 -0.551919 0 7 -0.551919 1
gene 1 1 28 -1.06195 0 8 -1.06195 1
gene 1 2 21 -2.76239 0 9 -2.76239 1
gene 1 2 22 -2.14058 0 10 -2.14058 1
gene 1 2 23 -2.04057 0 11 -2.04057 1
gene 1 2 24 -1.92369 0 12 -1.92369 1
gene 1 2 25 -0.429373 0 13 -0.429373 1
gene 1 2 27 1.87876 0 15 1.87876 1
gene 1 2 28 0.463884 0 16 0.463884 1
gene 1 3 21 0.0658953 0 17 0.0658953 1
gene 1 3 22 0.322519 0 18 0.322519 1
gene 1 3 23 1.18496 0 19 1.18496 1
gene 1 3 24 0.361034 0 20 0.361034 1
gene 1 3 25 -1.63224 0 21 -1.63224 1
gene 1 3 27 -1.20606 0 23 -1.20606 1
gene 1 3 28 1.98554 0 24 1.98554 1
gene 1 4 21 -1.94234 0 25 -1.94234 1
gene 1 4 22 0.582118 0 26 0.582118 1
gene 1 4 23 -0.213939 0 27 -0.213939 1
gene 1 4 24 1.18184 0 28 1.18184 1
gene 1 4 25 0.850249 0 29 0.850249 1
gene 1 4 27 2.46337 0 31 2.46337 1
gene 1 4 28 -1.62387 0 32 -1.62387 1
gene 1 5 21 -2.63948 0 33 -2.63948 1
gene 1 5 22 0.478342 0 34 0.478342 1
gene 1 5 23 0.848514 0 35 0.848514 1
gene 1 5 24 2.45568 0 36 2.45568 1
gene 1 5 25 -0.693627 0 37 -0.693627 1
gene 1 5 27 0.0736351 0 39 0.0736351 1
gene 1 5 28 0.823808 0 40 0.823808 1
gene 1 6 21 2.02527 0 41 2.02527 1
gene 1 6 22 0.687765 0 42 0.687765 1
gene 1 6 23 0.454534 0 43 0.454534 1
gene 1 6 24 -0.178641 0 44 -0.178641 1
gene 1 6 25 -1.40967 0 45 -1.40967 1
gene 1 6 27 -1.23243 0 47 -1.23243 1
gene 1 6 28 -0.138548 0 48 -0.138548 1
gene 1 7 21 0.0800575 0 49 0.0800575 1
gene 1 7 22 -1.76512 0 50 -1.76512 1
gene 1 7 23 -1.23994 0 51 -1.23994 1
gene 1 7 24 -1.04241 0 52 -1.04241 1
gene 1 7 25 0.569108 0 53 0.569108 1
gene 1 7 27 -1.68073 0 55 -1.68073 1
gene 1 7 28 0.888254 0 56 0.888254 1
gene 1 8 21 0.211973 0 57 0.211973 1
gene 1 8 22 0.365069 0 58 0.365069 1
gene 1 8 23 -2.31562 0 59 -2.31562 1
gene 1 8 24 1.31276 0 60 1.31276 1
gene 1 8 25 1.49842 0 61 1.49842 1
gene 1 8 27 1.52796 0 63 1.52796 1
gene 1 8 28 -0.0340517 0 64 -0.0340517 1
gene 1 9 21 1.50381 0 65 1.50381 1
gene 1 9 22 0.776631 0 66 0.776631 1
gene 1 9 23 -0.0906995 0 67 -0.0906995 1
gene 1 9 24 1.40986 0 68 1.40986 1
gene 1 9 25 -1.81635 0 69 -1.81635 1
gene 1 9 27 -1.12561 0 71 -1.12561 1
gene 1 9 28 2.11164 0 72 2.11164 1
gene 1 21 10 -2.412 0 73 -2.412 1
gene 1 21 11 1.03075 0 74 1.03075 1
gene 1 21 12 1.37143 0 75 1.37143 1
gene 1 21 13 1.6806 0 76 1.6806 1
gene 1 21 14 -1.66748 0 77 -1.66748 1
gene 1 21 15 -0.917337 0 78 -0.917337 1
gene 1 21 16 1.0392 0 79 1.0392 1
gene 1 21 17 -0.0520832 0 80 -0.0520832 1
gene 1 21 18 0.835686 0 81 0.835686 1
gene 1 21 19 -0.375056 0 82 -0.375056 1
gene 1 21 20 0.168821 0 83 0.168821 1
gene 1 22 10 -0.632862 0 84 -0.632862 1
gene 1 22 11 -2.02329 0 85 -2.02329 1
gene 1 22 12 -0.159855 0 86 -0.159855 1
gene 1 22 13 -1.85302 0 87 -1.85302 1
gene 1 22 14 0.249244 0 88 0.249244 1
gene 1 22 15 -0.398915 0 89 -0.398915 1
gene 1 22 16 -1.97417 0 90 -1.97417 1
gene 1 22 17 0.328604 0 91 0.328604 1
gene 1 22 18 -2.48026 0 92 -2.48026 1
gene 1 22 19 0.560346 0 93 0.560346 1
gene 1 22 20 0.592186 0 94 0.592186 1
gene 1 23 10 2.1009 0 95 2.1009 1
gene 1 23 11 0.831161 0 96 0.831161 1
gene 1 23 12 -2.08189 0 97 -2.08189 1
gene 1 23 13 1.70792 0 98 1.70792 1
gene 1 23 14 0.195429 0 99 0.195429 1
gene 1 23 15 -1.74192 0 100 -1.74192 1
gene 1 23 16 0.518989 0 101 0.518989 1
gene 1 23 17 0.740559 0 102 0.740559 1
gene 1 23 18 1.96141 0 103 1.96141 1
gene 1 23 19 -1.16276 0 104 -1.16276 1
gene 1 23 20 -2.08314 0 105 -2.08314 1
gene 1 24 10 -1.14543 0 106 -1.14543 1
gene 1 24 11 0.643782 0 107 0.643782 1
gene 1 24 12 0.641354 0 108 0.641354 1
gene 1 24 13 -2.69248 0 109 -2.69248 1
gene 1 24 14 0.508978 0 110 0.508978 1
gene 1 24 15 -0.595913 0 111 -0.595913 1
gene 1 24 16 -1.1524 0 112 -1.1524 1
gene 1 24 17 0.457241 0 113 0.457241 1
gene 1 24 18 0.425557 0 114 0.425557 1
gene 1 24 19 1.46791 0 115 1.46791 1
gene 1 24 20 -0.0406015 0 116 -0.0406015 1
gene 1 25 10 -1.39922 0 117 -1.39922 1
gene 1 25 11 0.222928 0 118 0.222928 1
gene 1 25 12 -2.43909 0 119 -2.43909 1
gene 1 25 13 -0.595268 0 120 -0.595268 1
gene 1 25 14 -1.48118 0 121 -1.48118 1
gene 1 25 15 0.75363 0 122 0.75363 1
gene 1 25 16 -1.58426 0 123 -1.58426 1
gene 1 25 17 -0.130149 0 124 -0.130149 1
gene 1 25 18 -3.41018 0 125 -3.41018 1
gene 1 25 19 1.44576 0 126 1.44576 1
gene 1 25 20 -0.393671 0 127 -0.393671 1
gene 1 27 10 0.425482 0 139 0.425482 1
gene 1 27 11 -1.18866 0 140 -1.18866 1
gene 1 27 12 -0.266646 0 141 -0.266646 1
gene 1 27 13 0.325382 0 142 0.325382 1
gene 1 27 14 0.182538 0 143 0.182538 1
gene 1 27 15 1.90189 0 144 1.90189 1
gene 1 27 16 -0.080239 0 145 -0.080239 1
gene 1 27 17 -0.263893 0 146 -0.263893 1
gene 1 27 18 0.0793015 0 147 0.0793015 1
gene 1 27 19 -0.614845 0 148 -0.614845 1
gene 1 27 20 -0.14718 0 149 -0.14718 1
gene 1 28 10 0.587452 0 150 0.587452 1
gene 1 28 11 -0.470196 0 151 -0.470196 1
gene 1 28 12 -1.46639 0 152 -1.46639 1
gene 1 28 13 -1.58716 0 153 -1.58716 1
gene 1 28 14 -0.378284 0 154 -0.378284 1
gene 1 28 15 -0.492696 0 155 -0.492696 1
gene 1 28 16 -0.418558 0 156 -0.418558 1
gene 1 28 17 -0.84187 0 157 -0.84187 1
gene 1 28 18 -0.019008 0 158 -0.019008 1
gene 1 28 19 -0.87104 0 159 -0.87104 1
gene 1 28 20 0.52987 0 160 0.52987 1
gene 1 7 20 -0.196635 0 277 -0.196635 1
gene 1 11 11 -0.536355 1 470 -0.536355 1
genomeend 100
