/* Organism #229 Fitness: 1.008 Error: 0.992 */
genomestart 229
trait 1 0.149081 0.0747968 0.128545 0.107977 0.908219 0.227115 0.795648 0 
node 1 1 0
node 2 1 1
node 3 1 1
node 4 1 1
node 5 1 1
node 6 1 1
node 7 1 1
node 8 1 1
node 9 1 1
node 10 1 2
node 11 1 2
node 12 1 2
node 13 1 2
node 14 1 2
node 15 1 2
node 16 1 2
node 17 1 2
node 18 1 2
node 19 1 2
node 20 1 2
node 23 1 3
node 24 1 3
node 25 1 3
node 26 1 3
node 27 1 3
node 28 1 3
gene 1 1 23 -1.45614 0 3 -1.45614 1
gene 1 1 25 -3.29787 0 5 -3.29787 1
gene 1 1 26 -3.55036 0 6 -3.55036 1
gene 1 1 27 0.187539 0 7 0.187539 1
gene 1 1 28 -0.0600195 0 8 -0.0600195 1
gene 1 2 23 -1.92867 0 11 -1.92867 1
gene 1 2 24 4.29586 0 12 4.29586 1
gene 1 2 25 1.02562 0 13 1.02562 1
gene 1 2 26 -3.07991 0 14 -3.07991 1
gene 1 2 27 -2.15719 0 15 -2.15719 1
gene 1 2 28 -3.1987 0 16 -3.1987 1
gene 1 3 23 2.48893 0 19 2.48893 1
gene 1 3 24 0.69908 0 20 0.69908 1
gene 1 3 25 -1.07042 0 21 -1.07042 1
gene 1 3 26 2.11793 0 22 2.11793 1
gene 1 3 27 -4.10937 0 23 -4.10937 1
gene 1 3 28 -3.85109 0 24 -3.85109 1
gene 1 4 23 -1.84238 0 27 -1.84238 1
gene 1 4 24 -1.55509 0 28 -1.55509 1
gene 1 4 25 -2.74881 0 29 -2.74881 1
gene 1 4 26 1.24832 0 30 1.24832 1
gene 1 4 27 -1.72306 0 31 -1.72306 1
gene 1 4 28 -2.6397 0 32 -2.6397 1
gene 1 5 23 -0.463869 0 35 -0.463869 1
gene 1 5 24 1.15274 0 36 1.15274 1
gene 1 5 25 1.06984 0 37 1.06984 1
gene 1 5 26 -1.7867 0 38 -1.7867 1
gene 1 5 27 1.13676 0 39 1.13676 1
gene 1 5 28 1.43638 0 40 1.43638 1
gene 1 6 23 -5.31683 0 43 -5.31683 1
gene 1 6 24 0.347222 0 44 0.347222 1
gene 1 6 25 1.02671 0 45 1.02671 1
gene 1 6 26 0.439113 0 46 0.439113 1
gene 1 6 27 1.20992 0 47 1.20992 1
gene 1 6 28 -0.551288 0 48 -0.551288 1
gene 1 7 23 -0.553798 0 51 -0.553798 1
gene 1 7 25 -3.37681 0 53 -3.37681 1
gene 1 7 26 -4.69291 0 54 -4.69291 1
gene 1 7 27 -0.0665521 0 55 -0.0665521 1
gene 1 7 28 0.702245 0 56 0.702245 1
gene 1 8 23 3.37748 0 59 3.37748 1
gene 1 8 24 -1.59006 0 60 -1.59006 1
gene 1 8 25 0.563114 0 61 0.563114 1
gene 1 8 26 -1.06103 0 62 -1.06103 1
gene 1 8 27 -1.44999 0 63 -1.44999 1
gene 1 8 28 -1.79849 0 64 -1.79849 1
gene 1 9 23 0.197562 0 67 0.197562 1
gene 1 9 24 -0.844448 0 68 -0.844448 1
gene 1 9 25 1.38176 0 69 1.38176 1
gene 1 9 26 0.457893 0 70 0.457893 1
gene 1 9 27 0.308515 0 71 0.308515 1
gene 1 9 28 -2.30008 0 72 -2.30008 1
gene 1 23 10 -0.664618 0 95 -0.664618 1
gene 1 23 11 3.73806 0 96 3.73806 1
gene 1 23 12 -0.727939 0 97 -0.727939 1
gene 1 23 13 2.70183 0 98 2.70183 1
gene 1 23 14 -0.846669 0 99 -0.846669 1
gene 1 23 15 -3.2321 0 100 -3.2321 1
gene 1 23 16 0.549307 0 101 0.549307 1
gene 1 23 17 -0.448208 0 102 -0.448208 1
gene 1 23 18 3.01274 0 103 3.01274 1
gene 1 23 19 -5.0485 0 104 -5.0485 1
gene 1 23 20 1.54561 0 105 1.54561 1
gene 1 24 10 6.49484 0 106 6.49484 1
gene 1 24 11 -0.493316 0 107 -0.493316 1
gene 1 24 12 0.988683 0 108 0.988683 1
gene 1 24 13 2.98761 0 109 2.98761 1
gene 1 24 14 0.911652 0 110 0.911652 1
gene 1 24 15 0.480024 0 111 0.480024 1
gene 1 24 16 1.17566 0 112 1.17566 1
gene 1 24 17 -1.22241 0 113 -1.22241 1
gene 1 24 18 2.9486 0 114 2.9486 1
gene 1 24 20 0.505044 0 116 0.505044 1
gene 1 25 10 1.35213 0 117 1.35213 1
gene 1 25 11 -1.04167 0 118 -1.04167 1
gene 1 25 12 -1.36225 0 119 -1.36225 1
gene 1 25 13 -0.591435 0 120 -0.591435 1
gene 1 25 14 -0.658233 0 121 -0.658233 1
gene 1 25 15 1.51592 0 122 1.51592 1
gene 1 25 17 -2.09852 0 124 -2.09852 1
gene 1 25 18 -0.963645 0 125 -0.963645 1
gene 1 25 19 3.16784 0 126 3.16784 1
gene 1 25 20 -1.13153 0 127 -1.13153 1
gene 1 26 10 -0.977085 0 128 -0.977085 1
gene 1 26 11 -0.507601 0 129 -0.507601 1
gene 1 26 12 -1.5186 0 130 -1.5186 1
gene 1 26 13 -0.218525 0 131 -0.218525 1
gene 1 26 14 -4.68806 0 132 -4.68806 1
gene 1 26 15 4.92106 0 133 4.92106 1
gene 1 26 16 0.962088 0 134 0.962088 1
gene 1 26 17 -0.270636 0 135 -0.270636 1
gene 1 26 18 -2.62833 0 136 -2.62833 1
gene 1 26 19 -3.9854 0 137 -3.9854 1
gene 1 26 20 -1.63074 0 138 -1.63074 1
gene 1 27 10 -0.0210577 0 139 -0.0210577 1
gene 1 27 11 0.605624 0 140 0.605624 1
gene 1 27 12 -1.2607 0 141 -1.2607 1
gene 1 27 13 0.862918 0 142 0.862918 1
gene 1 27 14 -1.84036 0 143 -1.84036 1
gene 1 27 15 1.56412 0 144 1.56412 1
gene 1 27 16 0.56706 0 145 0.56706 1
gene 1 27 17 -1.52487 0 146 -1.52487 1
gene 1 27 18 0.880976 0 147 0.880976 1
gene 1 27 19 2.31968 0 148 2.31968 1
gene 1 27 20 0.847842 0 149 0.847842 1
gene 1 28 10 -0.800307 0 150 -0.800307 1
gene 1 28 11 1.20234 0 151 1.20234 1
gene 1 28 12 0.190803 0 152 0.190803 1
gene 1 28 13 -0.400807 0 153 -0.400807 1
gene 1 28 14 -3.97701 0 154 -3.97701 1
gene 1 28 15 0.291568 0 155 0.291568 1
gene 1 28 16 -1.29056 0 156 -1.29056 1
gene 1 28 17 3.10936 0 157 3.10936 1
gene 1 28 18 -2.16502 0 158 -2.16502 1
gene 1 28 19 1.53708 0 159 1.53708 1
gene 1 28 20 0.884098 0 160 0.884098 1
gene 1 13 20 2.08463 0 211 2.08463 1
gene 1 7 20 -1.47688 0 425 -1.47688 1
gene 1 9 11 0.860073 0 911 0.860073 1
gene 1 6 18 0.813314 0 1044 0.813314 1
gene 1 4 12 -0.524897 0 1444 -0.524897 1
gene 1 23 23 -0.16497 1 2613 -0.16497 1
gene 1 18 13 0.502284 0 3051 0.502284 1
gene 1 1 10 0.405581 0 3184 0.405581 1
gene 1 24 23 0.287284 0 3309 0.287284 1
genomeend 229
